#ifndef ROM_LSTM_16_WEIGHTS_H
#define ROM_LSTM_16_WEIGHTS_H
static const float ROM_lstm_16_W_IH[192] = {
    0.11715677f, 0.24476367f, -0.12007862f, -0.17895079f, -0.08927477f, 0.05897321f, 0.12668791f, 0.16064990f,
    0.07633270f, 0.06213838f, 0.25328809f, 0.16159351f, -0.09363274f, 0.07055083f, 0.26011494f, -0.57956594f,
    0.57732338f, -0.08189601f, 0.15780398f, 0.51889318f, 0.13223122f, -0.47123837f, 0.35471031f, -0.15816325f,
    -0.19827619f, 0.08831889f, -0.00724872f, 0.06349080f, 0.04587705f, 0.27344003f, -0.14124012f, 0.48055351f,
    -0.11904445f, -0.16286461f, 0.33057889f, -0.11768860f, -0.35226452f, 0.38292661f, -0.07143256f, -0.16373678f,
    -0.07233295f, 0.06686746f, 0.30227718f, 0.13661122f, 0.22849335f, -0.05402569f, -0.02870343f, -0.20449330f,
    0.04869965f, 0.29169038f, -0.09638509f, 0.00906601f, -0.20133704f, -0.09811948f, 0.55230337f, 0.04245209f,
    -0.07676259f, 0.04293609f, 0.31153256f, -0.05825477f, 0.20994805f, -0.00829274f, 0.11446679f, -0.03382182f,
    0.18866368f, 0.11972735f, 0.06794509f, 0.25583169f, -0.04771659f, -0.10191678f, 0.02016082f, -0.08912442f,
    -0.15074559f, -0.30882409f, 0.01902862f, 0.19902545f, -0.41941416f, 0.02337187f, -0.07926819f, 0.02168817f,
    0.15431178f, -0.24175695f, 0.05083334f, 0.13032368f, -0.12916738f, 0.16538817f, 0.00416855f, -0.33157328f,
    -0.05060900f, 0.04613763f, 0.04627519f, -0.14231265f, 0.11584971f, 0.41222236f, -0.23759806f, -0.00929568f,
    0.00783136f, -0.15468395f, 0.01232112f, 0.45366231f, 0.07518519f, -0.02192149f, 0.42315531f, -0.32083175f,
    0.05790538f, 0.18382740f, -0.36312616f, 0.04885820f, -0.54413897f, 0.16269590f, -0.00230938f, -0.19279614f,
    0.19518372f, 0.01188238f, -0.30440328f, 0.34279132f, -0.06643176f, -0.17494544f, 0.12381602f, -0.08387486f,
    0.72175163f, -0.11330545f, 0.07180189f, 0.59609514f, 0.02513384f, -0.04309015f, -0.13259150f, 0.19414106f,
    -0.05184598f, 0.50571638f, -0.23053065f, -0.16671982f, 0.12137123f, -0.14155148f, 0.06198608f, -0.47954118f,
    0.06596048f, 0.03309031f, -0.17263962f, 0.44612211f, -0.07190467f, 0.39792800f, -0.03534220f, -0.05082448f,
    -0.01156606f, 0.32608920f, -0.14161657f, -0.22314394f, 0.12089628f, -0.13935927f, 0.34546015f, 0.50658554f,
    0.10899305f, 0.24074186f, 0.53221309f, 0.19864137f, 0.05647234f, 0.20645313f, 0.03031942f, -0.33810493f,
    0.59697998f, 0.05017671f, 0.07300725f, 0.51057225f, -0.06860761f, -0.49391571f, 0.19032452f, -0.24517231f,
    -0.36140576f, -0.05269634f, 0.06521525f, 0.28427479f, 0.27390942f, 0.32589236f, -0.62751490f, 0.21481751f,
    0.04291543f, -0.61755842f, 0.40539297f, -0.55174732f, -0.53326708f, 0.30308580f, -0.20211944f, -0.38328502f,
    -0.00869220f, 0.11202623f, 0.59005839f, 0.60672939f, -0.02523201f, -0.07496643f, 0.32709035f, 0.08792076f,
};
static const float ROM_lstm_16_W_HH[1024] = {
    0.10835919f, 0.17414483f, 0.13597900f, 0.09628851f, 0.12202400f, -0.04438843f, 0.02545881f, -0.07470194f,
    0.18509315f, 0.24941678f, -0.03806847f, 0.30874625f, 0.17753558f, 0.20734283f, 0.02364119f, 0.07111242f,
    -0.31280008f, 0.15290917f, 0.05167985f, -0.16051725f, -0.06169486f, 0.00529002f, 0.13689092f, 0.11200916f,
    -0.07316387f, 0.15336591f, 0.41134515f, -0.46066558f, -0.10928058f, 0.32468638f, -0.48684856f, 0.24403311f,
    -0.25355127f, -0.10999482f, 0.04834587f, 0.00720449f, -0.00736407f, 0.29388887f, 0.11585095f, 0.16187854f,
    -0.07578304f, 0.10825501f, 0.22326499f, -0.29522300f, -0.09084351f, 0.45618013f, -0.19405997f, 0.25974476f,
    -0.12491499f, -0.00771286f, 0.04412178f, -0.09903486f, 0.01003066f, 0.08851768f, 0.05780589f, 0.04448259f,
    -0.33401525f, 0.00957122f, 0.27478150f, -0.25238323f, -0.20944011f, 0.14587300f, -0.18264677f, 0.09917012f,
    -0.04144799f, 0.12739401f, 0.23007500f, -0.12623586f, -0.35654426f, 0.21009095f, 0.03744575f, 0.09476409f,
    -0.06052085f, 0.15649571f, 0.34039688f, -0.47165477f, -0.21766427f, 0.27881035f, -0.13407846f, -0.02074607f,
    -0.13698454f, 0.03376001f, 0.12906455f, -0.16562207f, 0.08132065f, 0.01200414f, 0.11958488f, 0.02263814f,
    -0.02548898f, 0.06632013f, 0.11432768f, 0.12046123f, 0.08652209f, 0.02320411f, 0.19624570f, 0.06222892f,
    -0.17726667f, -0.00019561f, 0.13060379f, -0.08246163f, -0.16838223f, 0.17114052f, 0.01751544f, 0.17980695f,
    -0.13327412f, 0.34932250f, -0.02423304f, -0.09264978f, 0.04969260f, 0.00708392f, -0.05690745f, 0.02450193f,
    -0.23339848f, -0.03201291f, 0.29322022f, 0.06802164f, 0.06212691f, -0.01635887f, 0.17833629f, 0.06099219f,
    0.02331194f, 0.16444992f, 0.05395102f, 0.07017917f, -0.07110966f, 0.18177781f, -0.10713533f, -0.07491676f,
    -0.20263223f, -0.09444174f, 0.39388824f, 0.04359173f, -0.10030397f, 0.20344086f, 0.09303039f, 0.33970457f,
    -0.17690045f, 0.20203497f, 0.16459194f, -0.42730674f, -0.36427021f, 0.24073794f, -0.14624085f, 0.15906928f,
    -0.40970039f, 0.03410833f, 0.42988625f, -0.00787764f, -0.07150948f, 0.29635227f, -0.03799012f, 0.18101470f,
    -0.03818087f, 0.01236476f, 0.11631513f, -0.21391715f, -0.29595122f, 0.32638821f, -0.12720679f, 0.10719296f,
    -0.24079540f, -0.04400289f, 0.06317474f, -0.00738866f, -0.01443651f, -0.01160984f, 0.15100847f, -0.05370052f,
    0.05161547f, 0.06341861f, 0.08369126f, 0.07937185f, -0.15435776f, 0.24632120f, -0.06412835f, 0.17158382f,
    -0.00411220f, 0.13266911f, 0.27528918f, -0.04017133f, 0.01510252f, -0.05912781f, 0.07035669f, 0.13519995f,
    0.07588457f, 0.09873413f, 0.02524892f, -0.09436586f, -0.03667722f, 0.27491483f, -0.17365997f, -0.10196374f,
    -0.11177609f, 0.02468777f, 0.03124799f, -0.01801830f, -0.08338195f, -0.00106131f, 0.23562573f, 0.07005314f,
    -0.00581203f, 0.25077721f, 0.03425479f, -0.06182922f, 0.06348483f, 0.23093215f, 0.09481366f, 0.15402518f,
    -0.03089331f, 0.07381633f, 0.29690871f, -0.11124906f, -0.07647873f, 0.02138719f, 0.05252338f, -0.03214743f,
    -0.00291868f, 0.19390211f, 0.06136867f, -0.08206233f, -0.20989706f, 0.19572175f, -0.23901725f, 0.07459949f,
    -0.20441009f, 0.03611497f, -0.00771449f, -0.03830081f, -0.21374957f, 0.17103407f, -0.08441729f, 0.02966430f,
    -0.04548879f, 0.18728507f, 0.35026658f, 0.01985510f, -0.01350509f, 0.29593247f, -0.01996488f, 0.11680667f,
    -0.40122664f, 0.11994591f, 0.19851765f, -0.24528311f, -0.16494939f, 0.36258936f, 0.30991784f, 0.17674552f,
    -0.17003578f, 0.05491474f, 0.31576601f, -0.34742853f, -0.30574647f, 0.13631484f, -0.11481764f, 0.17183931f,
    -0.03913871f, 0.18950343f, -0.01007326f, -0.18585712f, -0.16450751f, -0.21863155f, -0.11622778f, -0.22384013f,
    0.00774445f, 0.04313204f, 0.03487451f, 0.19995895f, -0.00176690f, 0.11453462f, -0.23753870f, -0.02014428f,
    0.10961606f, -0.30925044f, -0.03673931f, -0.08937420f, 0.16953950f, 0.10430679f, 0.03017716f, -0.17633176f,
    0.11087496f, -0.24984285f, -0.05841105f, 0.19709699f, 0.25769076f, -0.13283658f, 0.01388985f, -0.13720915f,
    -0.09655521f, -0.00451032f, -0.21399677f, -0.04439915f, -0.00059566f, 0.10089206f, -0.08747511f, 0.05935558f,
    -0.19718170f, -0.10863822f, -0.24529694f, 0.28979194f, 0.07525290f, -0.32418397f, 0.06231087f, 0.01164113f,
    -0.09200176f, 0.18284671f, 0.10731556f, -0.11858798f, 0.12753573f, 0.18440852f, -0.13058889f, 0.02622969f,
    0.02394871f, -0.00579902f, 0.14226073f, -0.15088309f, -0.14282183f, 0.06145449f, -0.24204180f, -0.04604160f,
    0.01232231f, 0.01798475f, -0.18945532f, -0.03655983f, 0.22945015f, -0.15590271f, -0.06490216f, 0.00481301f,
    -0.21361144f, -0.15958618f, -0.14450894f, 0.03887175f, -0.03956323f, -0.09153104f, -0.10245544f, -0.25958505f,
    -0.06726119f, 0.06893425f, 0.15753560f, -0.28281492f, 0.11041027f, 0.04478029f, -0.01531415f, -0.11183508f,
    0.08863407f, 0.16668738f, 0.05742894f, -0.08897779f, -0.16605787f, -0.01109861f, 0.16402575f, -0.01723044f,
    -0.16324002f, -0.15860379f, 0.14729482f, 0.12065858f, 0.17439552f, -0.20591101f, -0.13805880f, 0.03748640f,
    0.14963767f, 0.26290122f, 0.20333420f, 0.27221212f, 0.06933527f, -0.24915068f, 0.18359762f, -0.16232638f,
    0.03100729f, 0.04088448f, -0.01526502f, -0.18158983f, 0.01446886f, 0.04472525f, 0.22672069f, 0.02062988f,
    -0.08928316f, 0.12449564f, 0.14383565f, 0.00544010f, 0.12472523f, 0.07671734f, 0.11502968f, 0.01094754f,
    0.30619851f, -0.25037375f, -0.17879377f, -0.23482916f, 0.10482108f, -0.11638578f, -0.02449818f, -0.28706950f,
    -0.08509927f, -0.22527745f, -0.20701259f, 0.12685470f, 0.18194981f, -0.27892536f, 0.20643879f, -0.20562576f,
    0.24396518f, 0.00928112f, -0.20591512f, 0.09417714f, 0.02990741f, -0.21158554f, 0.06828853f, -0.07318023f,
    0.00117274f, 0.06489407f, -0.16189814f, 0.40115038f, 0.11617126f, -0.15967388f, 0.08999079f, 0.07527125f,
    -0.07278837f, -0.07786446f, 0.34864637f, -0.02393576f, -0.03805953f, -0.05157703f, -0.00800512f, 0.19489056f,
    -0.15520306f, 0.18903375f, 0.29080749f, -0.16639416f, -0.12142637f, 0.21077102f, 0.00369525f, -0.00314257f,
    -0.31521103f, 0.01896948f, 0.26232940f, -0.26660445f, -0.32744780f, -0.04967210f, 0.14592029f, -0.17509834f,
    0.05361852f, 0.16593470f, -0.11949470f, -0.11441593f, -0.02119024f, 0.26634735f, -0.14779182f, -0.12082807f,
    -0.27933466f, -0.08762383f, 0.16126804f, -0.09032557f, -0.02362618f, -0.16553026f, -0.03278667f, 0.02544600f,
    0.16342150f, 0.13709594f, 0.01571357f, 0.17205043f, -0.05490492f, 0.08963786f, 0.15416904f, -0.12658773f,
    0.00171731f, 0.09477201f, 0.21392664f, -0.21888536f, 0.05770932f, -0.21460983f, 0.10149638f, -0.19027320f,
    -0.10347265f, -0.00640259f, -0.02064470f, 0.07021693f, -0.16862904f, 0.20830202f, 0.01769214f, 0.25686586f,
    -0.07540609f, -0.19514161f, 0.05235222f, 0.23780462f, 0.15497869f, -0.06463753f, -0.08689288f, 0.05280026f,
    -0.17076236f, -0.14265572f, -0.25111234f, 0.07689745f, 0.06042530f, -0.01427572f, 0.10757483f, -0.17929322f,
    0.10477404f, 0.04051705f, -0.06229449f, -0.03765959f, -0.09078629f, -0.12123608f, 0.29365513f, -0.11512520f,
    -0.07532775f, 0.14646067f, -0.15194154f, 0.06493933f, 0.04239861f, 0.05292491f, -0.00322470f, -0.22549506f,
    -0.04143086f, 0.09796949f, -0.14963019f, -0.07441565f, -0.19870850f, -0.10322720f, -0.19238359f, 0.09159412f,
    0.09472635f, -0.13267231f, 0.07438267f, -0.09367550f, 0.00256872f, -0.34386811f, -0.15210266f, 0.15145339f,
    0.35011840f, 0.14951457f, -0.27946109f, 0.07144098f, 0.05467959f, 0.34530932f, -0.22858138f, 0.00503124f,
    -0.33494154f, -0.14843364f, -0.21756436f, -0.23962444f, 0.15413715f, 0.06580914f, 0.25249684f, 0.11557552f,
    0.05033742f, 0.00744427f, -0.28313670f, 0.39930621f, 0.08693647f, 0.64253247f, -0.33622894f, 0.31238154f,
    -0.53424358f, -0.20390807f, 0.04001954f, -0.24771021f, -0.12721810f, 0.08432893f, -0.17164779f, 0.18787794f,
    0.23505001f, -0.15590960f, -0.14419827f, -0.21792091f, 0.21251173f, 0.19262996f, -0.17133257f, 0.36102632f,
    -0.09066284f, -0.14556092f, -0.06697966f, -0.30011162f, -0.20555511f, 0.00638286f, -0.10717667f, 0.16199781f,
    0.03536509f, 0.29174483f, 0.27439266f, -0.14892049f, 0.14911461f, -0.14241903f, 0.25831133f, -0.08553634f,
    -0.08255628f, 0.33723345f, -0.05636644f, -0.00453302f, 0.20930961f, -0.17789258f, 0.19233674f, -0.21958499f,
    -0.22366735f, -0.27885017f, 0.19363372f, -0.13854206f, 0.22352472f, 0.14671558f, 0.00667257f, 0.08929993f,
    0.13208395f, -0.10258809f, -0.02899525f, -0.05382380f, -0.27525479f, 0.06895461f, 0.25785473f, 0.04111931f,
    -0.11422850f, -0.13869721f, 0.19512086f, 0.05764822f, -0.03961144f, -0.08144516f, -0.05989174f, -0.02499355f,
    -0.02450396f, 0.11610020f, 0.06832252f, 0.19591500f, 0.12111890f, -0.05256971f, -0.19144247f, -0.04155403f,
    -0.37023255f, -0.24739257f, -0.02295196f, -0.16048394f, -0.15747730f, 0.13457231f, 0.19070360f, 0.20595472f,
    -0.26147747f, 0.27832419f, 0.22053577f, 0.12925772f, -0.02259875f, 0.16575979f, -0.04696686f, 0.15405001f,
    0.16791931f, 0.06983794f, -0.36041945f, 0.07870381f, 0.31954387f, -0.21675211f, -0.14779083f, 0.16295867f,
    -0.41901290f, -0.47743571f, -0.28336367f, -0.17086355f, 0.30489361f, -0.24556611f, 0.15404877f, -0.25573036f,
    0.24108250f, 0.01380473f, -0.51074165f, 0.15136321f, 0.24276738f, 0.28890154f, -0.14139254f, 0.42415643f,
    -0.01437251f, -0.19038643f, 0.18752947f, -0.04415648f, 0.08846930f, -0.14667934f, -0.00203766f, 0.16263743f,
    -0.26577249f, -0.20974047f, 0.33906659f, -0.06028560f, 0.12597953f, 0.03914752f, -0.06749491f, 0.08821794f,
    -0.07728129f, 0.20463969f, -0.02833429f, -0.18632628f, -0.11709582f, 0.34451601f, -0.22342680f, -0.13516212f,
    0.18144074f, 0.07913774f, -0.07784557f, 0.06097804f, 0.25079343f, -0.21761462f, 0.21796609f, 0.11644489f,
    -0.09805301f, -0.47364196f, -0.00027068f, -0.22527765f, 0.07534259f, 0.00683328f, 0.14497255f, -0.17332503f,
    0.35079899f, 0.23488455f, -0.03978201f, -0.02869132f, -0.14698333f, -0.26368207f, -0.23371594f, -0.28230050f,
    0.01366400f, -0.16478573f, -0.05648547f, -0.12157165f, -0.03898599f, -0.30164346f, -0.09134495f, 0.14424238f,
    0.02925367f, 0.37648126f, 0.22503275f, 0.09796641f, -0.19690710f, 0.09722594f, 0.02969451f, 0.16166630f,
    0.24054120f, 0.48219711f, 0.05213154f, 0.36937809f, -0.18155466f, -0.03895897f, -0.21516623f, 0.12170719f,
    0.01680685f, -0.16596746f, -0.10765265f, -0.17237739f, 0.03987575f, -0.02559514f, -0.09175266f, -0.14374764f,
    0.22313063f, -0.12352081f, -0.06020521f, -0.00886997f, 0.08826603f, -0.13210671f, -0.04550774f, -0.11516280f,
    0.16974103f, 0.00966118f, -0.25067094f, 0.07886251f, 0.10165817f, 0.02326141f, -0.19301236f, 0.07539070f,
    -0.25812942f, -0.07705501f, 0.10319241f, -0.25598231f, -0.30279288f, -0.16712222f, -0.24574780f, 0.02288872f,
    -0.02377998f, 0.27801985f, 0.33163422f, -0.01159282f, -0.17100284f, -0.05794909f, -0.09206313f, 0.05186579f,
    0.16133532f, 0.24524438f, -0.14949261f, 0.30257240f, -0.21707743f, 0.16384065f, -0.24777173f, 0.21937972f,
    -0.31691402f, -0.23690872f, 0.31780210f, 0.21882646f, -0.09603151f, 0.27101544f, 0.26032785f, 0.04031374f,
    -0.00737302f, 0.27161103f, 0.09552293f, -0.14188010f, 0.05020562f, 0.47702372f, -0.42792884f, 0.23018940f,
    -0.10024883f, 0.05809728f, 0.17713113f, 0.28049737f, -0.25844002f, 0.21980636f, 0.08797617f, 0.45971736f,
    -0.25496671f, 0.38531831f, 0.43351591f, -0.29986686f, -0.09931162f, 0.55720437f, -0.10052048f, 0.29798934f,
    -0.26264885f, 0.13540721f, 0.21630652f, -0.04948787f, 0.03772712f, 0.30772680f, 0.00214302f, 0.39574704f,
    -0.11566310f, 0.30754617f, 0.29122460f, -0.14364058f, -0.11847482f, 0.22200237f, -0.07591707f, -0.00157204f,
    -0.24800514f, -0.01774640f, 0.38718534f, 0.03052054f, 0.05126524f, 0.09158236f, 0.09616257f, 0.17678158f,
    0.08175745f, 0.39748517f, 0.26915494f, -0.42387167f, -0.33323494f, 0.30107272f, -0.42976841f, -0.01317596f,
    -0.28780824f, 0.10784666f, 0.29190233f, -0.40450060f, 0.02384374f, -0.14785296f, 0.10100719f, 0.17082596f,
    0.16913100f, 0.13612437f, 0.09963237f, 0.06476653f, 0.03395553f, 0.26088116f, 0.13664797f, -0.04278678f,
    -0.06529395f, -0.21535285f, 0.34276703f, -0.03639216f, -0.24081036f, 0.12309188f, 0.03835592f, 0.03648872f,
    0.01040617f, 0.13613564f, 0.26851925f, -0.26877174f, 0.04035313f, 0.12040757f, -0.22017372f, -0.07020595f,
    -0.14088286f, -0.09856872f, 0.07196714f, -0.56282568f, 0.08773251f, 0.00022504f, 0.01014983f, 0.08922026f,
    0.09128534f, 0.23912278f, 0.03749045f, 0.10238352f, 0.10661513f, -0.08535878f, -0.09228929f, -0.26237503f,
    -0.38585186f, -0.07610653f, 0.31164107f, -0.08862908f, 0.03254866f, 0.17992221f, 0.12195434f, 0.01538945f,
    0.11906245f, 0.27901438f, 0.20478733f, -0.16693197f, -0.13187186f, 0.49042600f, -0.23066974f, -0.08478293f,
    -0.38492125f, 0.18053512f, 0.36261219f, -0.03080448f, -0.12421808f, 0.32912448f, -0.06933962f, 0.40241253f,
    -0.20944802f, 0.25147262f, 0.15310711f, -0.17065093f, -0.43766186f, 0.14205694f, -0.42458627f, 0.11664753f,
    -0.11859186f, 0.19603783f, 0.17918517f, -0.03468443f, -0.15632698f, 0.12763159f, 0.23000392f, 0.07894562f,
    0.17172724f, 0.05165288f, 0.22354083f, -0.01601582f, -0.18281253f, -0.00832590f, -0.05032124f, 0.07160705f,
    -0.12738551f, -0.07143504f, 0.41487888f, 0.04198589f, -0.03037902f, -0.12738803f, 0.31260651f, 0.06693033f,
    0.10170384f, 0.08959109f, 0.18866099f, -0.00951744f, -0.21288268f, 0.24922518f, 0.02481228f, -0.01959750f,
    0.03356135f, 0.02240111f, 0.05583506f, -0.21128047f, 0.18918721f, -0.06104602f, -0.07019188f, -0.16850679f,
    -0.13736729f, 0.11876768f, 0.19015031f, 0.26851800f, 0.00872906f, 0.15163024f, -0.03801405f, 0.11682557f,
    -0.11805792f, -0.04209628f, 0.12143806f, -0.23800747f, -0.19578770f, 0.27633750f, 0.06610631f, 0.08728331f,
    0.03130464f, 0.03980868f, 0.25983545f, -0.02049903f, -0.06537821f, 0.22478789f, -0.23070711f, 0.19431829f,
    -0.09046270f, -0.03603826f, 0.10934777f, 0.15671714f, -0.14816749f, -0.00925339f, -0.26885965f, 0.33550844f,
    -0.23329638f, 0.29758933f, 0.27851415f, -0.08976523f, -0.27712008f, 0.06429600f, -0.22712101f, -0.03099861f,
    0.04643900f, -0.02199366f, 0.13870300f, -0.02179230f, -0.10655756f, 0.22100316f, 0.17722723f, 0.14003511f,
    0.01968236f, 0.20498212f, 0.33672568f, -0.25469598f, -0.19978912f, 0.35831389f, -0.32584956f, 0.24690759f,
};
static const float ROM_lstm_16_B_IH[64] = {
    -0.08449192f, 0.06476343f, 0.69555533f, 0.28173858f, 0.11780802f, 0.10245087f, 0.42622697f, 0.30671495f,
    0.49948561f, 0.44325605f, 0.14459448f, 0.40926740f, 0.20081475f, 0.55941540f, 0.42753556f, 0.36235246f,
    0.10473120f, -0.11346603f, -0.11144778f, -0.08534763f, -0.19145462f, -0.16535345f, 0.09782391f, 0.15610504f,
    -0.07980164f, -0.05092115f, 0.13994601f, -0.04520435f, 0.18342811f, 0.01485447f, -0.01134917f, -0.04067347f,
    -0.37284723f, -0.19114262f, 0.09216216f, 0.15957607f, -0.27012718f, 0.36556897f, -0.20682119f, 0.54600000f,
    -0.11886949f, 0.16606115f, 0.10652792f, -0.25377792f, -0.42895490f, -0.10427357f, -0.46037719f, 0.14704938f,
    0.29200062f, 0.36322147f, 0.64653820f, 0.41631237f, 0.21159942f, 0.23845400f, 0.12362029f, 0.00617162f,
    0.67966801f, 0.41987503f, -0.00186934f, 0.55708802f, 0.10620371f, 0.50081235f, 0.13101222f, 0.48497218f,
};
static const float ROM_lstm_16_B_HH[64] = {
    0.01886285f, 0.33322042f, 0.68546861f, 0.35567138f, 0.09747640f, 0.05224532f, 0.42962989f, 0.13406089f,
    0.60934764f, 0.63907605f, 0.07935721f, 0.75443751f, 0.32325929f, 0.46384066f, 0.36830771f, 0.24585070f,
    0.21817327f, -0.22132276f, 0.03569938f, -0.03423508f, 0.20379761f, 0.17045718f, -0.04228765f, 0.16284168f,
    -0.28778526f, 0.07614318f, 0.10913219f, -0.15203506f, 0.18970160f, 0.16073190f, 0.29089847f, 0.10459638f,
    -0.24292776f, 0.06225381f, 0.21169561f, 0.34980780f, -0.01666500f, 0.47640750f, -0.05244945f, 0.12875727f,
    -0.06265943f, 0.24927653f, 0.45050070f, -0.09463459f, -0.37559924f, 0.29787305f, -0.12568665f, -0.04417270f,
    0.14646900f, 0.48659983f, 0.33625633f, 0.38175789f, 0.37433514f, 0.24496980f, 0.35917482f, 0.42511940f,
    0.77836752f, 0.27566499f, 0.14301333f, 0.67529696f, 0.30181986f, 0.31828460f, 0.44969219f, 0.42440066f,
};
static const float ROM_lstm_16_FC_W[16] = {
    0.16327371f, 0.47957984f, 0.56229991f, 0.37450731f, -0.39965257f, -0.50646573f, -0.46910480f, -0.46594650f,
    0.44367254f, 0.44657090f, -0.39609933f, 0.34527767f, 0.49252990f, -0.34190190f, -0.49709547f, 0.50161076f,
};
static const float ROM_lstm_16_FC_B[1] = {
    0.20453975f,
};
#endif
