#ifndef ROM_LSTM_8_WEIGHTS_H
#define ROM_LSTM_8_WEIGHTS_H
static const float ROM_lstm_8_W_IH[96] = {
    -0.16941366f, 0.11767394f, -0.06715688f, -0.38317710f, 0.60690361f, 0.12671624f, -0.01697662f, 0.74241829f,
    0.30273092f, 0.00289620f, 0.49841473f, -0.12498967f, 0.11694915f, 0.41677979f, -0.18903631f, -0.40460396f,
    0.21145569f, -0.06591877f, -0.00303733f, 0.21653761f, -0.13306569f, 0.07841975f, -0.24271865f, 0.23621176f,
    0.12874931f, -0.30877459f, 0.13555995f, -0.28089061f, 0.13198276f, -0.18443830f, 0.67725492f, -0.48731562f,
    0.19377412f, 0.07792896f, 0.39966831f, -0.05923404f, 0.02344570f, 0.27283704f, -0.04558900f, -0.25499877f,
    0.42724541f, -0.28062490f, 0.10869096f, -0.12503885f, -0.14061485f, 0.58617991f, -0.36502677f, 0.00361996f,
    -0.51228881f, 0.12274308f, -0.03785783f, -0.54541689f, 0.46878231f, -0.04005418f, 0.60165191f, -0.47635376f,
    0.07017335f, -0.15423936f, -0.40759271f, -0.03906797f, -0.21495189f, 0.62405246f, -0.07774185f, -0.53239971f,
    0.28550017f, -0.03445954f, -0.72014922f, 0.30650580f, -0.05839300f, -0.67057639f, -0.07449987f, 0.02884096f,
    -0.39492208f, 0.58106720f, -0.16186652f, -0.18099874f, 0.58753324f, 0.01664815f, 0.30834273f, 0.40371203f,
    0.15787126f, 0.03381217f, 0.85740602f, -0.03865117f, 0.10003901f, 0.47640112f, 0.54450071f, -0.48447749f,
    0.22212093f, -0.08950149f, -0.15756901f, 0.35872734f, 0.13113837f, 0.27449885f, -0.10620922f, 0.77346927f,
};
static const float ROM_lstm_8_W_HH[256] = {
    0.21923862f, 0.44600940f, 0.32775530f, -0.78466803f, -0.06346561f, 0.48751250f, 0.22720857f, -0.38074413f,
    -0.08685011f, -0.11626337f, 0.03008650f, -0.30881208f, -0.10484108f, 0.27333814f, -0.52337646f, -0.27225167f,
    -0.00612738f, 0.48284915f, 0.06409150f, -0.71960652f, -0.46436441f, 0.34400094f, 0.12672967f, -0.25634173f,
    -0.14260863f, 0.05797000f, -0.06187934f, -0.06462169f, 0.07911215f, 0.21173869f, -0.10016542f, -0.07524347f,
    0.43016464f, 0.46063659f, -0.23837578f, -0.47554752f, -0.08696778f, 0.25732058f, 0.11259319f, -0.18347976f,
    0.00413234f, 0.46086285f, 0.10202605f, -0.29207760f, -0.33812499f, 0.52419370f, 0.21388569f, -0.08164278f,
    0.19138019f, 0.17023690f, 0.24200527f, -0.66353983f, -0.59321171f, 0.55665052f, -0.08453171f, -0.28647646f,
    0.04993706f, 0.34811598f, 0.60317492f, -0.63744956f, -0.36676848f, 0.92870820f, 0.33552650f, -0.21300362f,
    0.02627371f, 0.15944935f, -0.71631765f, 0.09603841f, 0.60890085f, -0.16525163f, -0.03742620f, 0.58474237f,
    0.28472659f, -0.20858544f, 0.00155152f, -0.33350480f, 0.48017350f, 0.33762929f, -0.06928209f, -0.12436117f,
    0.24860622f, 0.17574839f, -0.13307069f, 0.00916958f, -0.22875708f, 0.32298112f, 0.36855230f, 0.10564435f,
    0.14371595f, 0.13133049f, -0.22348987f, 0.19902840f, 0.26285741f, -0.02499591f, -0.09795175f, -0.16113681f,
    0.01128295f, 0.11561448f, -0.00948436f, 0.06663581f, 0.10929767f, -0.08377361f, -0.04827562f, -0.37277126f,
    -0.39131725f, -0.33807507f, 0.50068170f, 0.38124973f, 0.31428918f, -0.33508992f, -0.17477788f, 0.01694306f,
    0.18263590f, -0.07977916f, -0.21419956f, -0.15236521f, 0.63362908f, -0.20512557f, 0.02189642f, 0.10453528f,
    0.56529468f, 0.31250310f, -0.40247381f, 0.28278616f, -0.43502632f, -0.16698797f, 0.07749449f, 0.49861780f,
    -0.06885376f, 0.11552008f, 0.20755565f, -0.28269920f, 0.38882971f, -0.09794210f, -0.18378915f, 0.19838741f,
    -0.39453772f, 0.10485867f, -0.06485042f, 0.33320278f, 0.17679939f, 0.37777960f, 0.06354626f, 0.04714872f,
    -0.17055245f, 0.35759044f, -0.18698491f, -0.15797730f, -0.49847195f, 0.03133193f, 0.72561336f, 0.03176262f,
    -0.24376069f, -0.09862821f, 0.09813490f, 0.26584038f, 0.25148264f, -0.30463240f, -0.13280071f, 0.17807086f,
    -0.04233738f, -0.19998662f, 0.30972710f, -0.05875747f, -0.13673772f, -0.41868970f, 0.11526360f, 0.16264804f,
    -0.43593091f, -0.23576580f, 0.83729041f, -0.06579459f, 0.18808329f, -0.43088478f, -0.48549500f, -0.03442552f,
    0.01060246f, -0.31656733f, 0.63345504f, 0.05003758f, -0.14624780f, 0.15983756f, -0.30349937f, 0.11075600f,
    -0.35721460f, -0.01467474f, 0.08270257f, 0.06755659f, 0.13770545f, 0.03860793f, -0.42529780f, -0.45238322f,
    0.25417733f, 0.17706552f, 0.13957769f, -0.57855105f, -0.19791457f, 0.06275102f, 0.10295884f, -0.42128602f,
    0.35353562f, 0.36485958f, 0.13056627f, -0.11589343f, -0.22203891f, 0.34304544f, -0.13994591f, -0.37670562f,
    0.38986781f, 0.52365965f, 0.38521931f, -0.27351236f, -0.04412627f, 0.75999463f, 0.50261927f, -0.43676743f,
    -0.11281588f, 0.12180833f, 0.14788742f, -0.39399469f, -0.27051464f, -0.01693074f, 0.06845041f, -0.32896304f,
    0.09109107f, 0.67835450f, -0.18138826f, -0.18493295f, -0.02714955f, 0.44179550f, 0.60502356f, -0.54744792f,
    0.10525785f, 0.54022574f, -0.02577165f, -0.55607980f, -0.21044491f, 0.31477857f, 0.40690503f, 0.01436697f,
    0.45883864f, 0.47740221f, 0.54711747f, -0.52938324f, -0.40927348f, 0.49550569f, 0.30172729f, -0.21254069f,
    0.37485996f, 0.39701828f, 0.28992882f, -0.50787383f, -0.04037206f, 0.49537235f, -0.07127944f, -0.29852548f,
};
static const float ROM_lstm_8_B_IH[32] = {
    0.14061315f, 0.06581133f, 0.48454157f, 0.27510679f, 0.29590562f, 0.86231828f, 1.02556002f, 0.68770254f,
    0.10390698f, 0.19847301f, -0.18855786f, 0.09371792f, -0.37135175f, 0.28210187f, -0.15788104f, 0.31238768f,
    0.03272956f, 0.20036660f, 0.47224584f, 0.07573222f, -0.40063027f, 0.31117675f, 0.04962724f, -0.36297724f,
    0.35378379f, 0.67003947f, 0.65608507f, 0.44571900f, 0.46110979f, 0.92211616f, 0.47889614f, 0.88067746f,
};
static const float ROM_lstm_8_B_HH[32] = {
    0.56387097f, 0.39997369f, 0.83689672f, 0.11461863f, 0.53285700f, 0.97522438f, 0.81184465f, 0.90929788f,
    -0.32092237f, 0.13075088f, -0.03496113f, 0.28463539f, 0.24040319f, -0.32942277f, -0.48560452f, 0.50646973f,
    -0.38322881f, 0.24398531f, 0.46938911f, -0.15417647f, -0.43113974f, 0.16166304f, 0.11102409f, 0.08015225f,
    0.53370172f, 0.53300667f, 0.27789134f, 0.24942474f, 0.51437545f, 0.82239759f, 0.54686326f, 0.75881886f,
};
static const float ROM_lstm_8_FC_W[8] = {
    -0.81567276f, -0.69486326f, 0.74853230f, 0.21421145f, -0.39825311f, -0.59284091f, -0.70951402f, -0.68625259f,
};
static const float ROM_lstm_8_FC_B[1] = {
    -0.14437516f,
};
#endif
